digraph Tree {
node [shape=box, fontname="helvetica"] ;
edge [fontname="helvetica"] ;
0 [label="x[3] <= 0.8\ngini = 0.667\nsamples = 119\nvalue = [39, 40, 40]"] ;
1 [label="gini = 0.0\nsamples = 39\nvalue = [39, 0, 0]"] ;
0 -> 1 [labeldistance=2.5, labelangle=45, headlabel="True"] ;
2 [label="x[3] <= 1.75\ngini = 0.5\nsamples = 80\nvalue = [0, 40, 40]"] ;
0 -> 2 [labeldistance=2.5, labelangle=-45, headlabel="False"] ;
3 [label="x[2] <= 4.95\ngini = 0.165\nsamples = 44\nvalue = [0, 40, 4]"] ;
2 -> 3 ;
4 [label="gini = 0.0\nsamples = 38\nvalue = [0, 38, 0]"] ;
3 -> 4 ;
5 [label="x[3] <= 1.55\ngini = 0.444\nsamples = 6\nvalue = [0, 2, 4]"] ;
3 -> 5 ;
6 [label="gini = 0.0\nsamples = 3\nvalue = [0, 0, 3]"] ;
5 -> 6 ;
7 [label="x[0] <= 6.95\ngini = 0.444\nsamples = 3\nvalue = [0, 2, 1]"] ;
5 -> 7 ;
8 [label="gini = 0.0\nsamples = 2\nvalue = [0, 2, 0]"] ;
7 -> 8 ;
9 [label="gini = 0.0\nsamples = 1\nvalue = [0, 0, 1]"] ;
7 -> 9 ;
10 [label="gini = 0.0\nsamples = 36\nvalue = [0, 0, 36]"] ;
2 -> 10 ;
}